{
    "l1_weights": [
        -267,
        19159,
        -29394,
        -26284,
        -13756,
        9577,
        -708,
        28317,
        -3169,
        9450,
        -10793,
        -7020,
        -34045,
        -22046,
        -13115,
        1390,
        14119,
        21429,
        -24212,
        -15552,
        12972,
        29657,
        -7350,
        26725,
        -5757,
        3779,
        32338,
        -33131,
        -22483,
        -9042,
        -13921,
        30857,
        -23149,
        -16440,
        -24951,
        -33449,
        -21161,
        30578,
        11180,
        7359,
        -1788,
        -18012,
        8128,
        -27621,
        4438,
        -12671,
        20070,
        18006,
        -37082,
        -11025,
        22841,
        35505,
        14174,
        4825,
        23946,
        -21029,
        6655,
        -27689,
        -24753,
        -18449,
        16160,
        14810,
        -17745,
        15311,
        22137,
        333,
        14540,
        -58372,
        -56753,
        20403,
        24466,
        57751,
        131116,
        27105,
        -7368,
        -44437,
        -22185,
        -44567,
        1051,
        -22975,
        -33418,
        31732,
        27156,
        -35626,
        6685,
        -6016,
        -5758,
        -16324,
        13901,
        -13883,
        29549,
        50535,
        91305,
        122192,
        115148,
        89178,
        61824,
        102700,
        51130,
        62848,
        141049,
        -3185,
        -19652,
        -116128,
        -63182,
        -37779,
        -58373,
        -27748,
        -2246,
        6707,
        -14994,
        21192,
        -21734,
        32474,
        25595,
        -29576,
        4666,
        36827,
        78088,
        213245,
        270294,
        265520,
        233464,
        236996,
        143223,
        121937,
        105148,
        18853,
        106604,
        -13418,
        92360,
        -78963,
        -124897,
        -129792,
        -104383,
        -107131,
        -31795,
        -1339,
        7388,
        22181,
        33830,
        22709,
        34270,
        6525,
        -31283,
        50629,
        165775,
        207621,
        128114,
        139355,
        144347,
        115373,
        183001,
        265601,
        174343,
        119485,
        128453,
        84277,
        133582,
        153511,
        56632,
        10715,
        -86427,
        -99554,
        -5045,
        43587,
        4865,
        12818,
        -32145,
        -2412,
        34762,
        30492,
        66595,
        34150,
        -11230,
        -26965,
        174,
        93075,
        223920,
        140276,
        141154,
        69078,
        119398,
        244272,
        131261,
        159537,
        70974,
        5277,
        -34709,
        30589,
        -171495,
        -32372,
        10794,
        82899,
        -12697,
        -23386,
        -20811,
        13103,
        -6142,
        75426,
        80345,
        16798,
        -57810,
        -106994,
        84488,
        8286,
        -37441,
        -48000,
        50427,
        151798,
        158345,
        188199,
        142476,
        30537,
        25498,
        -63253,
        47187,
        -111067,
        -9675,
        -107407,
        -64388,
        -32720,
        39404,
        -1400,
        -32678,
        23328,
        5455,
        93767,
        174643,
        38824,
        69679,
        25937,
        3376,
        -49601,
        151950,
        -10668,
        179001,
        191258,
        237398,
        120354,
        -137351,
        33262,
        69674,
        184647,
        103956,
        84436,
        98669,
        -167292,
        -96097,
        -51136,
        5481,
        5947,
        30750,
        -21903,
        11591,
        136980,
        174633,
        117979,
        74206,
        15318,
        38276,
        124310,
        88225,
        144283,
        105579,
        94646,
        136764,
        103974,
        6120,
        135543,
        26610,
        13675,
        119411,
        71891,
        31207,
        -78567,
        -116330,
        -22720,
        39277,
        17190,
        2831,
        -44528,
        -10554,
        183927,
        187021,
        90018,
        161261,
        36106,
        4735,
        -99396,
        -136882,
        -171651,
        -280085,
        -390543,
        -137323,
        -57930,
        357447,
        43090,
        227263,
        182344,
        44582,
        178668,
        155596,
        -23343,
        -241399,
        -62307,
        24238,
        19821,
        15079,
        -33832,
        -34924,
        89621,
        83326,
        -42799,
        17507,
        44641,
        -102375,
        -108553,
        -200805,
        -118175,
        -229311,
        -228847,
        54294,
        52126,
        99363,
        -1482,
        109585,
        141243,
        334799,
        196509,
        143038,
        -83684,
        -147928,
        -58570,
        -54645,
        14313,
        26979,
        4588,
        16047,
        24921,
        -76206,
        -157777,
        -189334,
        -124788,
        -402997,
        -185975,
        -216689,
        -195337,
        -55511,
        -108775,
        168201,
        37214,
        85182,
        114114,
        98532,
        155310,
        78365,
        30426,
        -206012,
        -190553,
        -162735,
        -119306,
        -42186,
        28737,
        19304,
        30748,
        19529,
        -94938,
        -189493,
        -309629,
        -362662,
        -186959,
        -222605,
        -76065,
        -201364,
        -99360,
        -88175,
        -51,
        93586,
        -100098,
        126956,
        177285,
        84618,
        2472,
        -56930,
        -258110,
        -358085,
        -253734,
        -211481,
        -70659,
        7225,
        -5709,
        -20418,
        -19570,
        -37866,
        -64520,
        -185634,
        -340562,
        -301856,
        -125609,
        -83289,
        -184007,
        -111090,
        -151711,
        -59452,
        73407,
        171460,
        32541,
        79483,
        66633,
        55144,
        -103989,
        -112683,
        -193354,
        -465747,
        -379092,
        -201170,
        -86041,
        16335,
        35124,
        1819,
        -22117,
        -9523,
        201,
        -141873,
        -222837,
        -118350,
        -121515,
        -47944,
        -50022,
        -29371,
        -6158,
        -17408,
        77585,
        40122,
        67933,
        68051,
        3248,
        1211,
        -145727,
        -147007,
        -240498,
        -358921,
        -204963,
        -116991,
        -15601,
        -37470,
        10636,
        1629,
        -32237,
        27824,
        83125,
        2190,
        -11705,
        118403,
        77824,
        -61608,
        -4363,
        -13547,
        28170,
        97085,
        4757,
        60214,
        80269,
        37738,
        14788,
        -143116,
        -184393,
        -179593,
        -67078,
        -92724,
        -39950,
        113189,
        37920,
        14012,
        -33808,
        -30504,
        16789,
        -10620,
        173412,
        149348,
        2194,
        -81916,
        64002,
        63552,
        123665,
        -47679,
        30556,
        86010,
        20199,
        98807,
        19920,
        -122966,
        -33556,
        -97871,
        -36678,
        -136485,
        -2295,
        23960,
        51454,
        122915,
        153119,
        55615,
        33594,
        31408,
        -18176,
        22289,
        176236,
        233492,
        14620,
        -11499,
        -90053,
        -162981,
        -8825,
        -57400,
        15918,
        29329,
        64187,
        58372,
        9002,
        42384,
        -57411,
        160122,
        57817,
        -42798,
        29046,
        115095,
        58019,
        249466,
        197209,
        78160,
        51852,
        -26960,
        -26616,
        -23815,
        62259,
        97059,
        -96750,
        -51378,
        98340,
        -85088,
        38460,
        115332,
        -58274,
        -43169,
        -85940,
        -33834,
        -3581,
        99455,
        63659,
        -2253,
        42084,
        24813,
        64584,
        56343,
        92863,
        195364,
        178677,
        58398,
        5293,
        -34772,
        -19546,
        -2690,
        119993,
        92677,
        56985,
        169546,
        101820,
        140239,
        1364,
        23937,
        -83124,
        -105897,
        -232433,
        -94994,
        -70482,
        -41983,
        -26691,
        12211,
        127313,
        101464,
        61419,
        -14115,
        196741,
        191041,
        42124,
        19105,
        13510,
        28299,
        29087,
        24487,
        88369,
        25659,
        58977,
        100251,
        31570,
        4864,
        -33661,
        -107527,
        -64787,
        -17900,
        4568,
        -192859,
        -167761,
        -116643,
        15261,
        17822,
        49700,
        63734,
        11161,
        110371,
        67396,
        108590,
        -5554,
        6901,
        31053,
        17910,
        5108,
        47671,
        82039,
        79675,
        136689,
        56680,
        94958,
        79585,
        -111567,
        -27201,
        -46095,
        -32885,
        -121246,
        77467,
        -15681,
        8638,
        -89017,
        -77469,
        -107844,
        -34082,
        28728,
        38727,
        37068,
        7084,
        -6603,
        -898,
        2509,
        -23155,
        34183,
        -14255,
        49725,
        22179,
        -11446,
        -90742,
        26224,
        -5537,
        -52185,
        -107399,
        -22749,
        81244,
        65949,
        4040,
        -23228,
        -62387,
        -122143,
        -45254,
        -164615,
        -99662,
        -32842,
        -25589,
        29659,
        12072,
        4804,
        -41347,
        -5147,
        -6273,
        11574,
        18316,
        19224,
        42514,
        8510,
        39302,
        15692,
        55688,
        -72507,
        -73675,
        18280,
        -62487,
        32796,
        -36245,
        79636,
        110914,
        93009,
        8751,
        -24576,
        99994,
        48067,
        93575,
        40264,
        52422,
        -24895,
        8376,
        5190,
        -16716,
        12436,
        -31820,
        -10853,
        -30646,
        5784,
        87407,
        168227,
        171067,
        240605,
        114014,
        91098,
        140889,
        216351,
        186687,
        125804,
        185804,
        260307,
        254613,
        206908,
        280373,
        124901,
        50572,
        23250,
        -14240,
        8411,
        33523,
        -28611,
        21614,
        -18517,
        -6956,
        28349,
        -11007,
        -3600,
        7650,
        151305,
        293831,
        361027,
        443741,
        446729,
        394312,
        407423,
        431780,
        332627,
        372952,
        317246,
        238857,
        182747,
        136920,
        63386,
        -3602,
        2054,
        26807,
        30090,
        3332,
        8112,
        -15461,
        26959,
        -14861,
        -24809,
        5533,
        21930,
        -29623,
        43914,
        39485,
        2038,
        38916,
        83269,
        61603,
        89454,
        120885,
        68495,
        96554,
        73961,
        56648,
        -6549,
        42536,
        -20179,
        32924,
        -34275,
        -31820,
        21936,
        3733,
        2060,
        -19777,
        -14981,
        -10442,
        -34791,
        1856,
        6316,
        -30,
        11533,
        33888,
        9496,
        -13074,
        -14698,
        -21086,
        -20553,
        -5373,
        -6301,
        15888,
        -15266,
        28472,
        -25060,
        102,
        32104,
        35514,
        -20688,
        6362,
        4219,
        -16745,
        -12339,
        9673,
        -24834,
        5893,
        15454,
        -14011,
        29795,
        -293,
        23381,
        43940,
        458,
        35730,
        16528,
        24765,
        21733,
        14683,
        -1338,
        24152,
        17757,
        31664,
        2963,
        14336,
        -7780,
        -27547,
        16513,
        4570,
        -14303,
        -12075,
        9340,
        -6458,
        23338,
        2023,
        13491,
        16847,
        -6469,
        28458,
        53300,
        52400,
        86565,
        129211,
        177943,
        107925,
        51383,
        81649,
        4704,
        100055,
        171455,
        149710,
        65817,
        115470,
        107347,
        43825,
        7369,
        37384,
        -15248,
        -2862,
        -15639,
        -4930,
        7762,
        4068,
        -6801,
        -33046,
        12308,
        25866,
        35510,
        49306,
        150995,
        127177,
        81610,
        -20637,
        53992,
        -51969,
        -27825,
        47596,
        119577,
        118749,
        -20925,
        47401,
        179226,
        108537,
        109909,
        44421,
        26289,
        -13241,
        16465,
        -31660,
        -2268,
        9809,
        6166,
        25633,
        -7914,
        -18176,
        -64661,
        -45240,
        -94862,
        -66130,
        -134702,
        -101785,
        49403,
        -72825,
        -111355,
        -128778,
        -56756,
        -103124,
        -124576,
        -121487,
        -19173,
        -189509,
        -185410,
        -78386,
        -53180,
        -38413,
        24819,
        22844,
        -32311,
        13904,
        -54621,
        -24442,
        -138632,
        -70946,
        -87415,
        1001,
        -20996,
        -122856,
        -19024,
        -40093,
        83719,
        87449,
        11163,
        182676,
        201021,
        77430,
        13645,
        7638,
        -128624,
        -169824,
        -247419,
        -154575,
        -32277,
        -29938,
        -10479,
        -29199,
        -28550,
        21004,
        -288,
        -62036,
        -225399,
        -138798,
        88225,
        32634,
        71993,
        -47094,
        -7964,
        23456,
        -149218,
        -144433,
        77711,
        -31058,
        -24023,
        -152401,
        -148313,
        3024,
        -174478,
        -67065,
        -109095,
        -143496,
        -47888,
        -77546,
        23431,
        -10369,
        -36403,
        22953,
        -33041,
        -37764,
        -227778,
        -100093,
        -44435,
        -75161,
        -44614,
        -5930,
        59562,
        -20861,
        -116907,
        -149132,
        -65087,
        -76910,
        -158191,
        -64093,
        -105623,
        -121239,
        -88134,
        26096,
        -91338,
        -205236,
        -172045,
        -93876,
        -24352,
        -4814,
        -8552,
        5851,
        -44903,
        -71194,
        -174037,
        -13524,
        -77034,
        30221,
        37171,
        -25187,
        -113261,
        171123,
        -30272,
        -122326,
        -107557,
        87648,
        -138609,
        -154673,
        -86650,
        -110829,
        -7087,
        -5021,
        -4285,
        -282845,
        -258960,
        -72927,
        -3248,
        -27280,
        -13366,
        -25734,
        -25695,
        -51776,
        -8638,
        -33014,
        -104239,
        -50949,
        34114,
        37152,
        -84933,
        85101,
        128575,
        -160196,
        -306961,
        4786,
        -75324,
        -121263,
        58512,
        -25687,
        41694,
        17906,
        -72591,
        -305056,
        -256447,
        -80736,
        -3369,
        -14918,
        -23922,
        567,
        -71896,
        -23011,
        20877,
        60614,
        26143,
        54501,
        114580,
        -1742,
        74401,
        -10096,
        3672,
        -220987,
        -295925,
        -156668,
        93892,
        -49753,
        17262,
        -48368,
        66965,
        7970,
        28969,
        -203751,
        -351730,
        -117354,
        4255,
        -14321,
        24750,
        -17396,
        -16438,
        -73125,
        -123441,
        -12386,
        -9744,
        -148577,
        71,
        44723,
        109641,
        -11038,
        28027,
        -138612,
        -393463,
        -77314,
        -73970,
        -52183,
        46140,
        -15278,
        124333,
        28565,
        111779,
        31603,
        -153469,
        -96884,
        -16969,
        -5750,
        -32370,
        -24606,
        -4859,
        -176042,
        -119141,
        -70069,
        -50659,
        -75133,
        83343,
        -93148,
        52364,
        80194,
        22975,
        -303971,
        -306365,
        -95513,
        28954,
        -102734,
        -94181,
        59488,
        116373,
        42482,
        250634,
        259066,
        -67604,
        -28012,
        -32941,
        17752,
        -30376,
        23797,
        -25321,
        -216709,
        -82862,
        11633,
        10167,
        38059,
        104117,
        67062,
        -43277,
        -151295,
        -63100,
        -163370,
        -65530,
        -100425,
        -10679,
        -93160,
        -128121,
        -17370,
        116163,
        166242,
        310209,
        215738,
        -8782,
        5066,
        5103,
        9722,
        -2499,
        -11147,
        -7800,
        -71656,
        -297,
        70406,
        213596,
        -45014,
        -72917,
        107269,
        162677,
        31766,
        -35834,
        -46379,
        -24069,
        -24459,
        -45179,
        -83098,
        -71454,
        -46770,
        53403,
        83345,
        234744,
        187342,
        76818,
        49203,
        -31082,
        -23624,
        -23091,
        -28257,
        81655,
        -5214,
        -34176,
        82974,
        204577,
        168742,
        256682,
        239946,
        71321,
        94495,
        -72129,
        900,
        -77420,
        -70693,
        -5600,
        -55681,
        -55088,
        -44534,
        155238,
        -25278,
        24827,
        68204,
        82315,
        56050,
        46381,
        -14080,
        -13946,
        8275,
        -38321,
        -92211,
        -1565,
        108438,
        36510,
        111535,
        110109,
        161281,
        246684,
        179978,
        -77426,
        27544,
        49787,
        37568,
        -5823,
        -64369,
        -41868,
        12346,
        15370,
        -103360,
        -73553,
        -17226,
        147786,
        59357,
        31019,
        -33227,
        2373,
        45613,
        -94643,
        -93181,
        52573,
        -35265,
        -34979,
        21003,
        157425,
        135916,
        254520,
        -38167,
        -104221,
        107299,
        -30719,
        93702,
        95421,
        989,
        -68576,
        72985,
        -9300,
        -44546,
        -100463,
        114917,
        184001,
        10149,
        37224,
        -9585,
        -23142,
        34721,
        -33166,
        -34872,
        94272,
        -36110,
        68484,
        154284,
        148982,
        167367,
        171169,
        124145,
        -124411,
        56003,
        51045,
        23820,
        56254,
        30625,
        -23758,
        884,
        -28309,
        22528,
        -1064,
        146254,
        145301,
        15573,
        23548,
        -35211,
        -21775,
        26223,
        -72601,
        -41881,
        -1627,
        -43905,
        118174,
        207854,
        27067,
        279818,
        297782,
        52891,
        -90492,
        -13309,
        66023,
        34072,
        111020,
        -77107,
        22368,
        33693,
        36008,
        112496,
        118257,
        -10965,
        59873,
        4955,
        31051,
        -12922,
        -8705,
        38762,
        -66618,
        32762,
        222729,
        -3643,
        76700,
        60813,
        -54865,
        173894,
        225818,
        288564,
        -16070,
        98436,
        118455,
        244,
        -20013,
        1645,
        13101,
        -76928,
        -29328,
        42819,
        103349,
        26366,
        13798,
        -37891,
        22833,
        -34023,
        -6179,
        -3862,
        -49926,
        -23679,
        33102,
        32989,
        -8406,
        -36880,
        185225,
        56215,
        127312,
        65373,
        -46184,
        19696,
        77615,
        99482,
        113217,
        98111,
        72489,
        16598,
        142600,
        147834,
        160183,
        103009,
        19192,
        29692,
        -3166,
        3092,
        -24700,
        -42710,
        4902,
        65381,
        60589,
        39743,
        29432,
        83734,
        45033,
        71736,
        132497,
        215661,
        157551,
        -134041,
        -95955,
        -75738,
        -140062,
        -92583,
        68583,
        50444,
        133032,
        109670,
        11625,
        -19175,
        -41783,
        22724,
        14579,
        -16969,
        -32795,
        -28045,
        -38555,
        -24227,
        -67880,
        -41209,
        -8122,
        97152,
        -868,
        6419,
        104976,
        249219,
        146640,
        70987,
        85980,
        116357,
        -3821,
        -1495,
        57264,
        111704,
        45687,
        40193,
        -38668,
        -7537,
        -43876,
        16315,
        -33462,
        -8835,
        -7264,
        -12612,
        -39920,
        -114705,
        -159722,
        -162208,
        -269010,
        -163584,
        -84178,
        -73032,
        23446,
        84344,
        161615,
        3180,
        -85830,
        11957,
        -151781,
        -234919,
        -265055,
        -252825,
        -205982,
        -112972,
        -117335,
        -20139,
        28112,
        491,
        -22135,
        34875,
        28649,
        15406,
        -34516,
        13185,
        -105712,
        -104586,
        -197838,
        -278046,
        -434610,
        -500381,
        -552428,
        -667719,
        -626413,
        -415532,
        -316432,
        -241907,
        -219768,
        -192872,
        -269619,
        -248663,
        -208626,
        -115230,
        -66403,
        -30188,
        27029,
        8149,
        -5518,
        -20629,
        -32703,
        -10419,
        -33073,
        -7510,
        -45326,
        -56161,
        -77669,
        -37470,
        -77252,
        -93187,
        -71006,
        -29780,
        -45346,
        -145228,
        -104697,
        -97988,
        -43143,
        -298,
        -23886,
        -17060,
        -66716,
        -17973,
        -22165,
        -11873,
        11508,
        15798,
        -1271,
        34030,
        -24719,
        13693,
        32167,
        -6210,
        28304,
        262,
        -28101,
        -21549,
        9921,
        -18099,
        9412,
        34206,
        7504,
        -11907,
        8301,
        -22549,
        -31754,
        -26831,
        -30259,
        5119,
        -16648,
        -31167,
        -35106,
        19347,
        -20265,
        -5962,
        -29946,
        -20149,
        14899,
        -33276,
        -20366,
        26776,
        -18316,
        -14863,
        -10028,
        15266,
        -23427,
        3581,
        14586,
        -784,
        10418,
        -27245,
        16146,
        13347,
        -4480,
        -29531,
        14285,
        23305,
        -6247,
        16833,
        13238,
        -14285,
        -2479,
        35551,
        169,
        -28433,
        -2605,
        17768,
        -11658,
        -18677,
        27026,
        3547,
        -16342,
        -12379,
        -2778,
        30530,
        36553,
        27472,
        41714,
        7678,
        -11482,
        -30086,
        26347,
        -11271,
        21122,
        30877,
        6780,
        -21113,
        6323,
        51,
        -30864,
        -25261,
        33034,
        26708,
        19793,
        24741,
        13749,
        22046,
        17927,
        -23814,
        -1135,
        42642,
        47774,
        70864,
        125012,
        222054,
        207578,
        247076,
        307500,
        284986,
        213172,
        207508,
        146947,
        188766,
        121229,
        53296,
        35552,
        -10307,
        -22631,
        13775,
        6539,
        -25576,
        -23524,
        16757,
        27404,
        3120,
        -18966,
        14928,
        4788,
        -50332,
        -34148,
        63883,
        128921,
        34131,
        61011,
        131828,
        191581,
        248149,
        283375,
        328681,
        213773,
        178776,
        224464,
        115513,
        38642,
        48231,
        -25077,
        -33995,
        -17003,
        -33146,
        29430,
        -15763,
        -24378,
        -583,
        -23139,
        -2210,
        38592,
        -76719,
        -64509,
        -58781,
        -101087,
        43370,
        -55427,
        32733,
        19659,
        -88547,
        3626,
        47197,
        119542,
        104401,
        46881,
        81021,
        -42553,
        -35774,
        -35347,
        24315,
        -24042,
        -7579,
        15865,
        28990,
        8310,
        -13366,
        -25936,
        11989,
        -37573,
        -87630,
        -118309,
        -62981,
        7467,
        47801,
        603,
        -77168,
        3467,
        -185357,
        -84986,
        -22568,
        -83781,
        84178,
        -4696,
        -60913,
        -81563,
        -62285,
        24952,
        29891,
        -1784,
        9325,
        -14923,
        31110,
        -2708,
        -52860,
        -38352,
        -127202,
        -167681,
        -278161,
        -167314,
        -174348,
        -17736,
        -69355,
        -16715,
        70834,
        68326,
        -17121,
        97251,
        54089,
        -33770,
        -100040,
        -82887,
        -223070,
        -135475,
        -180974,
        -54282,
        -27130,
        -535,
        28115,
        -20248,
        -4183,
        2514,
        -37402,
        -125682,
        -248574,
        -288148,
        -175905,
        -162571,
        -110046,
        22879,
        -3599,
        155673,
        94937,
        238546,
        83654,
        21955,
        49223,
        -25422,
        -5897,
        -53452,
        -20976,
        -81172,
        -164055,
        -166855,
        -36244,
        40218,
        28021,
        16126,
        7916,
        -91377,
        -59931,
        -116148,
        -245337,
        -203002,
        -40294,
        -89488,
        -55238,
        -160503,
        32886,
        45649,
        -58150,
        92332,
        -80472,
        22393,
        -100316,
        -26513,
        -47900,
        12825,
        -58167,
        -6816,
        -47422,
        -93530,
        -2033,
        -36267,
        -9580,
        -5056,
        -7296,
        -106922,
        -179999,
        -265938,
        -182541,
        -70668,
        -10905,
        32354,
        87238,
        -22807,
        -43350,
        -18287,
        32066,
        19353,
        -88577,
        -120443,
        -242146,
        -133878,
        -78034,
        -29484,
        -114221,
        53750,
        12228,
        -114465,
        -9032,
        -15916,
        34938,
        -16103,
        -17090,
        -127002,
        -186243,
        -280453,
        -40290,
        87566,
        90731,
        -89665,
        89967,
        42395,
        -33269,
        52955,
        33167,
        -269575,
        -182963,
        -255418,
        -22345,
        -99198,
        -160871,
        -81509,
        70410,
        18329,
        -196503,
        -115017,
        -64287,
        -25337,
        3449,
        -49745,
        -44079,
        -143939,
        -219511,
        -153490,
        38142,
        129941,
        216199,
        61864,
        40043,
        20514,
        15260,
        -73578,
        44539,
        -92598,
        -59014,
        51224,
        52259,
        141774,
        165730,
        36452,
        153864,
        -55581,
        -205583,
        -119820,
        -78106,
        -932,
        3505,
        -26325,
        -36802,
        -177908,
        -232943,
        -13998,
        54947,
        42946,
        13820,
        52460,
        128323,
        133748,
        -33867,
        27149,
        355206,
        36369,
        16551,
        22924,
        63695,
        110075,
        255885,
        392179,
        228548,
        168535,
        -24200,
        -124046,
        -110435,
        -42321,
        3032,
        15927,
        198,
        -134965,
        -132837,
        -15209,
        2092,
        46710,
        -17269,
        72748,
        -85619,
        -147000,
        -27039,
        59769,
        311252,
        108820,
        70995,
        119299,
        178345,
        96386,
        43110,
        78764,
        46759,
        -66194,
        -114287,
        -172699,
        -83816,
        17763,
        27104,
        -1607,
        -32540,
        -26102,
        -60049,
        2828,
        -10719,
        -31803,
        -46660,
        16182,
        -42783,
        38539,
        -57723,
        144097,
        239954,
        152777,
        -30515,
        -4150,
        -51053,
        -101302,
        -167341,
        -226194,
        45026,
        19594,
        -29461,
        -61902,
        4250,
        -32577,
        7709,
        34671,
        -43389,
        -42727,
        -31209,
        -42791,
        -85991,
        -21728,
        -11968,
        -72000,
        -92086,
        41832,
        29136,
        344697,
        153489,
        -16559,
        77997,
        93678,
        -78357,
        -192871,
        -91372,
        74303,
        55560,
        52324,
        -92016,
        -85179,
        -23141,
        970,
        -3612,
        22789,
        -32461,
        -50517,
        -111693,
        -160026,
        -90722,
        -81701,
        -4796,
        3571,
        58205,
        72744,
        7929,
        82929,
        137370,
        66966,
        -35758,
        -158396,
        -144223,
        -208673,
        -43569,
        -9830,
        112621,
        -40944,
        -196806,
        -197868,
        -35389,
        31890,
        17378,
        6436,
        14020,
        -68659,
        -127096,
        -257798,
        -222829,
        -27301,
        19817,
        38654,
        159673,
        160468,
        120418,
        95241,
        84385,
        -173833,
        -72543,
        -131061,
        -128335,
        27062,
        82240,
        154260,
        -31787,
        -166858,
        -312040,
        -207574,
        -39054,
        18791,
        -25960,
        23207,
        14657,
        -102807,
        -190913,
        -249419,
        -226683,
        -278200,
        -99329,
        195726,
        143566,
        204619,
        57891,
        -88782,
        -27575,
        55067,
        -75083,
        52449,
        4863,
        68812,
        -37171,
        -50733,
        -206006,
        -311227,
        -291053,
        -102015,
        -53218,
        31889,
        -35533,
        -2201,
        -23083,
        -122166,
        -247963,
        -178706,
        -180065,
        -30289,
        -94501,
        84167,
        226111,
        133247,
        85876,
        -26415,
        67741,
        -62204,
        68316,
        33944,
        59025,
        -2336,
        -52279,
        -58823,
        -312552,
        -281711,
        -218426,
        -57406,
        4106,
        22319,
        26627,
        -31939,
        -34807,
        -122889,
        -280849,
        -157445,
        -108737,
        100662,
        2691,
        -234273,
        -9894,
        5059,
        -274,
        63334,
        4192,
        128489,
        44769,
        49100,
        76051,
        -65044,
        -31575,
        -182819,
        -272349,
        -162950,
        -98786,
        -29286,
        -8866,
        -27812,
        14598,
        -35502,
        -29062,
        -111329,
        -215531,
        -112112,
        23111,
        -58894,
        -96899,
        66985,
        -33771,
        -74602,
        156544,
        63562,
        -7643,
        29795,
        -91410,
        -9316,
        -52401,
        -108921,
        -102565,
        -272200,
        -183539,
        -86591,
        -31284,
        -30165,
        -2936,
        -29124,
        -17391,
        27269,
        -3005,
        -53764,
        -154490,
        -65093,
        -20733,
        -16004,
        -45008,
        -212977,
        -105226,
        -97819,
        -119812,
        -26705,
        7719,
        -185858,
        -130808,
        -96414,
        57680,
        -112474,
        -220056,
        -181987,
        -147381,
        -27727,
        -38963,
        -43841,
        2998,
        -17316,
        25816,
        -28075,
        27525,
        -23048,
        -133870,
        -64724,
        -45474,
        -88153,
        150681,
        45510,
        -21762,
        81668,
        30004,
        82413,
        161412,
        39577,
        129660,
        43155,
        -23176,
        -69278,
        -78711,
        -82013,
        -77635,
        -9362,
        18775,
        8706,
        35068,
        9734,
        -2799,
        -28446,
        -31247,
        -59506,
        -110075,
        -134197,
        -139951,
        -118064,
        -83564,
        -63260,
        -8439,
        -40446,
        -3730,
        -84242,
        28346,
        10623,
        66717,
        -6278,
        175216,
        293967,
        266002,
        155861,
        35347,
        13934,
        21856,
        -35238,
        6687,
        21845,
        -5152,
        -20300,
        29384,
        9,
        -14214,
        -21768,
        17434,
        -52516,
        -78125,
        -106604,
        18410,
        36518,
        -39947,
        61402,
        86290,
        112137,
        319746,
        297738,
        277001,
        413756,
        378464,
        176861,
        28245,
        2285,
        22979,
        4803,
        8842,
        -3197,
        5272,
        13096,
        24365,
        -33840,
        -12092,
        -19431,
        14718,
        53886,
        83241,
        170153,
        235731,
        208222,
        219885,
        184744,
        176480,
        94845,
        131506,
        197795,
        236947,
        189671,
        207991,
        79218,
        5931,
        1945,
        -16257,
        31230,
        30739,
        -3810,
        -31671,
        -2185,
        2360,
        23872,
        1149,
        10395,
        9370,
        -22522,
        -39430,
        -69356,
        -66418,
        -7491,
        -28397,
        8270,
        -30947,
        -44772,
        9721,
        -29220,
        -34621,
        2269,
        -10545,
        30185,
        4125,
        -13286,
        26184,
        -20344,
        1182,
        8028,
        16030,
        -32952,
        1752,
        -9247,
        23156,
        12016,
        14314,
        21474,
        -7996,
        -2288,
        28652,
        -28785,
        -22187,
        10382,
        -11591,
        2152,
        31549,
        -4140,
        -30451,
        -16235,
        32799,
        -7846,
        -15660,
        16076,
        4421,
        -31489,
        29742,
        20112,
        31042,
        15629,
        -12041,
        -11659,
        17388,
        -6490,
        14405,
        -16213,
        5177,
        49024,
        26695,
        26259,
        30959,
        73452,
        -9107,
        -32986,
        65152,
        54430,
        2287,
        -11390,
        46185,
        8776,
        -12557,
        29005,
        -7439,
        2447,
        -18605,
        -30250,
        -23719,
        -3922,
        -25855,
        35200,
        1715,
        -11411,
        35367,
        30610,
        82681,
        147512,
        144473,
        241754,
        233776,
        126367,
        89087,
        174069,
        167578,
        200176,
        179774,
        123233,
        106711,
        81847,
        61797,
        19615,
        -982,
        18854,
        34643,
        29743,
        32453,
        -12054,
        -13564,
        -4070,
        13655,
        28087,
        31156,
        41469,
        145639,
        267267,
        268590,
        402844,
        422525,
        368835,
        182874,
        168838,
        194007,
        230311,
        279784,
        180500,
        137558,
        59463,
        60981,
        64486,
        38167,
        -869,
        24317,
        -17702,
        24215,
        8428,
        -1122,
        4155,
        -32649,
        41847,
        65449,
        84726,
        184710,
        183481,
        178645,
        179536,
        151211,
        158320,
        -58563,
        52961,
        89646,
        56380,
        93762,
        202,
        33154,
        -30685,
        -39687,
        -43809,
        -60641,
        13725,
        -30169,
        11527,
        16961,
        34674,
        -28821,
        816,
        -838,
        25410,
        10487,
        152634,
        254618,
        122334,
        -25364,
        63961,
        -5219,
        -963,
        34660,
        -145579,
        -25598,
        50765,
        -25314,
        14794,
        43811,
        -14132,
        -88150,
        -129453,
        -63178,
        19935,
        22934,
        -15915,
        -7099,
        12776,
        -30832,
        7562,
        1269,
        9105,
        -23001,
        -54818,
        82542,
        49186,
        -62354,
        13663,
        88660,
        17406,
        70109,
        2803,
        -45270,
        39906,
        -3761,
        -87862,
        -30068,
        -68410,
        15000,
        -69945,
        60739,
        85863,
        23198,
        27746,
        -16839,
        3347,
        1469,
        33131,
        -2333,
        20334,
        -108811,
        -157393,
        -59914,
        -87684,
        26422,
        56538,
        -131982,
        22537,
        -10028,
        42427,
        17173,
        -20550,
        -84323,
        44172,
        -33840,
        -78283,
        65691,
        -41519,
        120066,
        136857,
        25430,
        7839,
        -30744,
        13581,
        10511,
        -15036,
        30024,
        -56537,
        -36149,
        3421,
        13246,
        -129630,
        7635,
        -75606,
        19538,
        -59144,
        -30917,
        -44112,
        113080,
        -49586,
        -74111,
        11730,
        -21011,
        7294,
        696,
        8753,
        48693,
        88724,
        64452,
        -29210,
        -5524,
        -966,
        883,
        -43207,
        8743,
        -33838,
        -38041,
        -29552,
        1618,
        -58533,
        -105643,
        -30161,
        -70391,
        43338,
        54871,
        -30061,
        12844,
        -79148,
        461,
        -43129,
        -95093,
        8080,
        -79254,
        17189,
        144806,
        213620,
        47768,
        -15667,
        -34074,
        -2739,
        -11587,
        52183,
        6877,
        34778,
        -43882,
        -276103,
        -84264,
        -77876,
        -138542,
        -121956,
        -122574,
        -48562,
        -14052,
        -221600,
        -25686,
        -103297,
        -140845,
        -128928,
        18922,
        -90269,
        -130996,
        -6912,
        176994,
        104227,
        74252,
        35068,
        -29685,
        16914,
        10917,
        18326,
        38861,
        12855,
        -96462,
        -235745,
        -151444,
        -158495,
        -152720,
        -65337,
        -76507,
        -76304,
        -174925,
        -215389,
        -112575,
        -133610,
        -226700,
        -86194,
        -303227,
        -116225,
        -185627,
        37099,
        67380,
        37444,
        -14340,
        -1026,
        13312,
        -9240,
        30702,
        23339,
        -26552,
        -143451,
        -61755,
        21868,
        -42218,
        -24294,
        -21815,
        -4565,
        32640,
        -78195,
        -39734,
        -53191,
        -4508,
        -104784,
        -158907,
        -168853,
        -146596,
        -115498,
        -196494,
        37129,
        49934,
        32509,
        -31232,
        -35448,
        -18049,
        -30767,
        -14286,
        1612,
        -72162,
        -151555,
        -70138,
        7997,
        -26455,
        72681,
        56324,
        124595,
        20684,
        -41622,
        -89978,
        -217504,
        -108211,
        -62874,
        44434,
        -131614,
        -158033,
        -82546,
        -45637,
        135584,
        150116,
        -18139,
        -4576,
        -33461,
        14630,
        -9268,
        -7776,
        -181,
        -44767,
        -65748,
        10773,
        66410,
        19006,
        60154,
        30676,
        145660,
        -67760,
        -52962,
        -105032,
        -23399,
        -6907,
        -131398,
        -98873,
        -89664,
        82315,
        29988,
        60504,
        161399,
        153921,
        -34945,
        -4596,
        13381,
        -16430,
        15632,
        -11929,
        23052,
        -12315,
        43624,
        27731,
        88969,
        -9698,
        98061,
        23652,
        3579,
        -99431,
        -103791,
        -89976,
        -106788,
        10990,
        -79097,
        -37262,
        11870,
        72094,
        108199,
        71413,
        79542,
        106589,
        12801,
        19950,
        -13799,
        -15772,
        -25276,
        24634,
        21642,
        10312,
        100883,
        -13722,
        39516,
        -31107,
        135918,
        30657,
        51285,
        -41026,
        54113,
        12052,
        -122058,
        -27362,
        -73667,
        -14560,
        46566,
        10456,
        177657,
        61639,
        112156,
        179145,
        33668,
        -14349,
        -2616,
        -3024,
        -17699,
        14142,
        67817,
        23864,
        117708,
        43619,
        -68531,
        -156097,
        -118088,
        29203,
        33477,
        -66178,
        -141630,
        -60508,
        -48251,
        -6446,
        -24405,
        -26119,
        175102,
        65309,
        136421,
        -1321,
        22745,
        8697,
        3500,
        -13061,
        14408,
        14086,
        -23260,
        18671,
        113760,
        24173,
        83646,
        78274,
        -95361,
        36243,
        -190537,
        -49969,
        -76423,
        -67811,
        -137102,
        -94080,
        -96180,
        32297,
        79239,
        138339,
        55734,
        6125,
        115403,
        61133,
        45771,
        52586,
        54525,
        4656,
        2964,
        9674,
        36015,
        -18220,
        78354,
        105532,
        6658,
        106181,
        110074,
        -5201,
        -62943,
        114205,
        114147,
        193187,
        -26269,
        65474,
        64798,
        146160,
        218352,
        232904,
        105390,
        141143,
        140735,
        181065,
        10410,
        71447,
        35400,
        6792,
        -28260,
        21822,
        -31409,
        28639,
        97947,
        189217,
        332586,
        185356,
        218857,
        142729,
        236428,
        164912,
        196444,
        234895,
        275519,
        153842,
        193671,
        84773,
        79343,
        142363,
        85942,
        119315,
        171131,
        214159,
        46897,
        106852,
        40008,
        17472,
        3826,
        -24235,
        16017,
        31222,
        129671,
        244141,
        108367,
        127136,
        39037,
        118671,
        175747,
        91233,
        161549,
        95763,
        116763,
        174474,
        139066,
        133542,
        104771,
        133499,
        31648,
        -90131,
        -73532,
        122688,
        33210,
        72532,
        60994,
        30120,
        2950,
        21087,
        12335,
        46980,
        84912,
        120086,
        148181,
        81224,
        85286,
        96672,
        166423,
        -19413,
        -37870,
        65059,
        111752,
        14057,
        100542,
        8515,
        30039,
        9268,
        9302,
        80298,
        7247,
        70715,
        -3140,
        3297,
        -37025,
        18234,
        -27612,
        24657,
        -16274,
        1870,
        -22517,
        68216,
        71272,
        91664,
        174724,
        106596,
        128009,
        154375,
        65011,
        99621,
        -4995,
        -25238,
        4133,
        -5646,
        -33779,
        308,
        161596,
        159867,
        -36944,
        97868,
        105209,
        17617,
        1349,
        15048,
        -14612,
        8718,
        -19035,
        23116,
        -23516,
        -17318,
        -100039,
        20094,
        67582,
        133973,
        95720,
        -19092,
        121115,
        193012,
        190427,
        188852,
        83853,
        251450,
        34526,
        200422,
        95379,
        -78543,
        -83766,
        53720,
        17894,
        -11781,
        -22304,
        205,
        11442,
        -747,
        20907,
        31157,
        14495,
        25806,
        -43955,
        -64382,
        -55510,
        54185,
        138920,
        198943,
        185423,
        24689,
        129956,
        81530,
        132891,
        132424,
        197445,
        220004,
        151677,
        35660,
        27116,
        -8140,
        -32500,
        14505,
        -20388,
        7013,
        -15311,
        7093,
        17426,
        11225,
        25944,
        -3555,
        -19807,
        -17661,
        -46869,
        -66756,
        -26103,
        -34773,
        -7692,
        17726,
        -40740,
        -130141,
        -42903,
        -26473,
        -7142,
        6525,
        34960,
        -35339,
        -7763,
        10619,
        4268,
        29341,
        -11284,
        -28509,
        23646,
        9980,
        23527,
        -21138,
        -20977,
        -14427,
        2539,
        12102,
        -20524,
        -3372,
        -6386,
        35664,
        -4979,
        28944,
        -33606,
        -22365,
        -28737,
        26015,
        -24692,
        14749,
        -13518,
        35453,
        5038,
        -31015,
        6147,
        4342,
        -34543,
        7168,
        34075,
        10278,
        -190,
        -7404,
        9491,
        -15911,
        35170,
        30874,
        16685,
        -13303,
        -33534,
        -20560,
        34725,
        -32180,
        -34301,
        -4263,
        11292,
        -35546,
        -33158,
        194,
        -11980,
        24881,
        10254,
        -31001,
        -32190,
        24527,
        -6333,
        -15623,
        11249,
        -7019,
        17080,
        9057,
        -15463,
        -28608,
        17627,
        -32250,
        -10825,
        -4055,
        -22905,
        27930,
        -16100,
        19625,
        14325,
        116,
        -66252,
        -28182,
        10051,
        -16506,
        13771,
        5249,
        34993,
        -6718,
        220,
        -15533,
        -8802,
        10224,
        -34444,
        27093,
        25682,
        15125,
        26736,
        -10377,
        8136,
        4935,
        -4923,
        22694,
        61335,
        64034,
        66932,
        63726,
        32343,
        81267,
        20568,
        13711,
        63579,
        43859,
        98384,
        39436,
        49955,
        21539,
        19503,
        13335,
        8113,
        20870,
        18842,
        -19170,
        24517,
        23619,
        4633,
        -26849,
        -12921,
        40339,
        51851,
        91783,
        118217,
        85839,
        129503,
        30036,
        -27217,
        153277,
        69199,
        28587,
        151908,
        112565,
        123863,
        157357,
        232424,
        223979,
        123489,
        53486,
        -21490,
        -22400,
        23909,
        -5114,
        21933,
        24729,
        -14055,
        -10275,
        -20335,
        20346,
        31496,
        115887,
        96517,
        58682,
        28922,
        -2446,
        6281,
        -25306,
        -61891,
        52190,
        176942,
        25217,
        42949,
        126419,
        152975,
        78312,
        82170,
        -16294,
        -39888,
        -30203,
        -27701,
        -14958,
        5555,
        -16184,
        -22404,
        -4367,
        -1145,
        -24501,
        25041,
        125029,
        84317,
        24856,
        -34565,
        -25027,
        -103238,
        -68313,
        -37182,
        -151398,
        -80995,
        -42654,
        -5124,
        41055,
        -1176,
        -54152,
        73869,
        -2415,
        -4311,
        -33583,
        -19382,
        4635,
        29467,
        -13586,
        -18776,
        21398,
        -22053,
        -53971,
        106286,
        121732,
        51626,
        -101081,
        -62786,
        -8343,
        -55553,
        -28636,
        -12584,
        -76213,
        33772,
        -11974,
        -136853,
        -113185,
        -62483,
        -85684,
        -96429,
        -122438,
        -135789,
        -12644,
        11138,
        1446,
        -33004,
        -16641,
        -3186,
        65864,
        -14680,
        -11203,
        37771,
        -87147,
        -95763,
        -51787,
        -119369,
        -5797,
        50849,
        -40656,
        -7544,
        10913,
        112186,
        -113543,
        -100619,
        -49716,
        -90974,
        -96670,
        -102843,
        -103600,
        -109959,
        -37444,
        -20742,
        -28639,
        -23395,
        2365,
        10556,
        14281,
        -3182,
        -22883,
        -38333,
        -101517,
        40684,
        17963,
        -99611,
        -25955,
        -33472,
        -45746,
        -57426,
        -78698,
        -117663,
        -174450,
        -160491,
        -78186,
        -124927,
        -153451,
        -160121,
        -174101,
        -128954,
        -52477,
        -7053,
        19472,
        45269,
        10741,
        39537,
        -3552,
        11595,
        62936,
        -45046,
        -29784,
        -21336,
        111614,
        30382,
        -6708,
        -92296,
        61921,
        22848,
        -13324,
        -130000,
        -87471,
        -49042,
        -162893,
        -117843,
        -106504,
        -160380,
        -283324,
        -158398,
        -82857,
        8841,
        22654,
        -241,
        15103,
        -16365,
        -32810,
        -33728,
        12052,
        -41140,
        4810,
        -30136,
        58836,
        -22978,
        -21290,
        24204,
        -188092,
        -170501,
        -115859,
        -61845,
        -42604,
        -35302,
        -128409,
        -96399,
        -129550,
        -281937,
        -250218,
        -126841,
        -102233,
        -42663,
        8214,
        38035,
        77201,
        -19265,
        -9793,
        -16483,
        -70617,
        -4050,
        67400,
        40587,
        -25236,
        -110232,
        -23449,
        -90011,
        -167551,
        -110849,
        76866,
        164673,
        137192,
        96000,
        88158,
        64471,
        -103331,
        -276315,
        -272596,
        -146485,
        -156151,
        -18562,
        -9193,
        -4580,
        33598,
        -32828,
        71991,
        -112641,
        -14576,
        5691,
        -28152,
        -61390,
        48261,
        7829,
        -108937,
        -102253,
        -175479,
        -78459,
        119567,
        46456,
        -5481,
        147554,
        -54772,
        74002,
        -38301,
        -115184,
        -134187,
        -109228,
        -83068,
        -6998,
        17347,
        -4649,
        4996,
        -42529,
        71432,
        55675,
        79804,
        119419,
        1193,
        -1229,
        62692,
        62552,
        9100,
        -96852,
        -92772,
        40688,
        119243,
        143382,
        75314,
        130121,
        130994,
        137661,
        5702,
        -7754,
        -42373,
        -63023,
        -79828,
        13995,
        2977,
        -22021,
        -5947,
        -23802,
        115489,
        49121,
        73832,
        182941,
        98616,
        63545,
        -252,
        -16030,
        -43012,
        -6816,
        -57898,
        -16767,
        209207,
        180269,
        124334,
        190682,
        31357,
        -26136,
        182488,
        -32380,
        -117875,
        -390,
        -50726,
        -9811,
        33693,
        -25266,
        -30420,
        -19122,
        12603,
        -168152,
        57881,
        213761,
        12351,
        -20896,
        35679,
        122205,
        43494,
        -144477,
        -50536,
        188021,
        232504,
        316746,
        12824,
        62828,
        101127,
        53552,
        173593,
        -10032,
        -132546,
        21093,
        -599,
        -20893,
        -27370,
        -30209,
        -14669,
        -90116,
        -45866,
        -75328,
        149547,
        124420,
        92392,
        24251,
        165516,
        217391,
        -129827,
        -23529,
        6314,
        256797,
        237278,
        139845,
        9074,
        66308,
        125275,
        11469,
        27313,
        -5185,
        -82411,
        -47280,
        -33326,
        -26863,
        10172,
        -10852,
        -42973,
        -60392,
        -91562,
        -83240,
        -42300,
        56251,
        105422,
        19956,
        166065,
        111646,
        -12553,
        77792,
        169126,
        256433,
        159151,
        169246,
        130796,
        -72450,
        40715,
        102123,
        -45097,
        -72132,
        -103850,
        -10774,
        -44258,
        -39282,
        -4715,
        -8768,
        -38887,
        -1589,
        6177,
        -85337,
        -84974,
        -40030,
        -58230,
        31551,
        -15695,
        -5641,
        46988,
        72098,
        149037,
        72033,
        102714,
        38403,
        62595,
        102887,
        -15265,
        54306,
        -93826,
        -12695,
        -82431,
        6203,
        5770,
        21063,
        -25163,
        -7821,
        18433,
        14340,
        3873,
        43973,
        63716,
        99,
        -89775,
        -2826,
        -25473,
        130447,
        -28569,
        -120614,
        60097,
        -74120,
        -75078,
        -16720,
        -20996,
        13668,
        5363,
        24696,
        -73383,
        -46965,
        -43388,
        -40136,
        -32172,
        33260,
        -3807,
        -18583,
        -26920,
        -20656,
        24635,
        -5168,
        15624,
        16181,
        -114234,
        -205010,
        -98641,
        -14851,
        -54372,
        1367,
        55329,
        74428,
        69385,
        -35501,
        -6657,
        -59636,
        -70439,
        -78151,
        -175434,
        -104903,
        -16213,
        -8596,
        14005,
        -21319,
        -30728,
        -29279,
        -6128,
        4927,
        -14024,
        -24476,
        -38904,
        -166136,
        -127292,
        -146650,
        -95946,
        -35044,
        26803,
        57094,
        17465,
        -58355,
        -40240,
        33138,
        -30882,
        -143226,
        -209386,
        -132306,
        -95060,
        -87924,
        -31638,
        -83646,
        11136,
        14330,
        -8749,
        20414,
        -13773,
        5257,
        -2425,
        286,
        -139342,
        -199885,
        -84362,
        -109063,
        -20149,
        -136414,
        -213278,
        -193829,
        -165199,
        -178783,
        -106475,
        -231625,
        -239809,
        -152679,
        -175571,
        -88984,
        -34654,
        -75080,
        -75707,
        -39526,
        -9360,
        -12697,
        -29873,
        19437,
        -12263,
        22850,
        -56704,
        -56796,
        -61967,
        -41422,
        16596,
        -134730,
        -110212,
        -157774,
        -244045,
        -251070,
        -181747,
        -230114,
        -290327,
        -122514,
        -164474,
        -82446,
        -63564,
        35490,
        -28828,
        -52185,
        -63169,
        -2095,
        -21502,
        20761,
        10797,
        14206,
        -16695,
        -25715,
        -38723,
        -33287,
        13654,
        52579,
        56432,
        30510,
        108374,
        -1601,
        -20740,
        -106656,
        -187576,
        -69195,
        -65596,
        88997,
        -50927,
        60726,
        93202,
        80724,
        25796,
        9465,
        -41898,
        33739,
        -35570,
        -27108,
        21417,
        1214,
        -21527,
        -9400,
        -31539,
        16538,
        65339,
        121103,
        131890,
        134692,
        124351,
        112982,
        104979,
        171839,
        226743,
        149166,
        110744,
        36289,
        90204,
        110759,
        157988,
        52346,
        -139,
        -15884,
        11748,
        -5533,
        -29160,
        7055,
        14526,
        28858,
        13843,
        13196,
        34844,
        17949,
        114345,
        142086,
        147936,
        218974,
        162120,
        223150,
        220684,
        127967,
        206678,
        147467,
        124104,
        125672,
        123573,
        84087,
        22123,
        43194,
        30050,
        -1891,
        30590,
        27532,
        -7872,
        1379,
        6291,
        -6999,
        -8799,
        -16121,
        -20152,
        18204,
        -8385,
        -12659,
        23157,
        -5589,
        47421,
        63955,
        8803,
        59324,
        106268,
        43091,
        49759,
        57373,
        37502,
        41601,
        43425,
        -6078,
        10513,
        33360,
        -20209,
        -24219,
        -27389,
        21349,
        -32758,
        -17368,
        24121,
        -21410,
        29043,
        -16695,
        5650,
        4675,
        -876,
        22244,
        30333,
        -22299,
        19732,
        8891,
        -666,
        -24972,
        10594,
        25923,
        -30655,
        -32984,
        -35110,
        8252,
        -10262,
        -11094,
        33256,
        -9109,
        -22680,
        3213,
        -19602,
        -10464,
        18865,
        8243,
        -24507,
        33957,
        23283,
        -26730,
        -30138,
        -41298,
        -40942,
        -31457,
        -34108,
        12516,
        3838,
        11528,
        -20532,
        25958,
        3957,
        -29663,
        -9240,
        18211,
        7697,
        -5682,
        -24952,
        -22217,
        30805,
        -20458,
        25309,
        -11954,
        357,
        -34778,
        -11639,
        29956,
        -33620,
        -3249,
        -99408,
        -106293,
        -132764,
        -111198,
        -159728,
        -103229,
        -41106,
        -63556,
        118,
        8440,
        33182,
        68708,
        38601,
        -8476,
        -1542,
        31681,
        17782,
        -9471,
        26964,
        -31212,
        30567,
        19982,
        -26215,
        -29129,
        29763,
        38664,
        2321,
        -49089,
        -127909,
        -221394,
        -205886,
        -152131,
        -234881,
        -311072,
        -239640,
        -167384,
        -92221,
        -93803,
        -88935,
        -46586,
        -21427,
        -35832,
        -43568,
        19931,
        -9127,
        -24420,
        1084,
        -8784,
        -18966,
        -32498,
        30376,
        -19161,
        20584,
        72290,
        74133,
        37426,
        -85835,
        -42593,
        632,
        67171,
        -29812,
        -61955,
        56359,
        23310,
        13481,
        53574,
        174643,
        56840,
        -45346,
        -57353,
        19219,
        27754,
        27849,
        23816,
        -15341,
        14123,
        -13082,
        14836,
        18837,
        15413,
        28690,
        127822,
        128798,
        70372,
        30990,
        36168,
        36290,
        46000,
        214426,
        55505,
        69664,
        -120005,
        7881,
        49972,
        -71064,
        12561,
        1869,
        -84622,
        -13190,
        83505,
        79090,
        84961,
        52518,
        14141,
        -27347,
        -24200,
        8769,
        -37607,
        115843,
        167706,
        145719,
        19368,
        125904,
        171648,
        110591,
        88221,
        31647,
        52249,
        43196,
        50254,
        66038,
        5773,
        -10569,
        130317,
        -1444,
        89053,
        56062,
        52176,
        73458,
        82255,
        51015,
        19956,
        -15855,
        27739,
        8904,
        30772,
        97811,
        96656,
        56894,
        -11800,
        37431,
        48523,
        -9686,
        22410,
        52514,
        5394,
        -3778,
        98445,
        39714,
        46687,
        6502,
        52992,
        23201,
        -6308,
        -46839,
        -18883,
        121069,
        115298,
        50521,
        -26328,
        -15326,
        25898,
        -3434,
        82297,
        134497,
        19295,
        -19394,
        79976,
        49724,
        86469,
        33217,
        8144,
        131502,
        110122,
        136296,
        77640,
        44491,
        40972,
        3501,
        27667,
        63975,
        17444,
        -10737,
        47227,
        258390,
        172932,
        34246,
        -23248,
        25577,
        18414,
        20989,
        55459,
        70784,
        13440,
        97402,
        148525,
        136081,
        81850,
        69563,
        56316,
        -29653,
        -75196,
        -33936,
        -33618,
        -2463,
        107603,
        7466,
        18763,
        73932,
        126192,
        106155,
        180959,
        207478,
        157554,
        53916,
        -22210,
        34348,
        520,
        -17848,
        817,
        38532,
        -25155,
        77428,
        10543,
        -41209,
        162504,
        29327,
        11224,
        -9757,
        -234788,
        -178353,
        -151612,
        -20185,
        -60136,
        14426,
        95417,
        67164,
        82041,
        122421,
        133650,
        215015,
        191017,
        74550,
        55191,
        -18170,
        7187,
        -39978,
        5829,
        69835,
        58933,
        88745,
        41504,
        87992,
        140816,
        17905,
        70835,
        193170,
        -62833,
        96130,
        29193,
        164543,
        108490,
        -7175,
        -36674,
        75132,
        -43836,
        94274,
        56027,
        111666,
        110292,
        60833,
        15918,
        35355,
        -5850,
        -6006,
        -17453,
        24608,
        31471,
        93465,
        104789,
        53089,
        65651,
        -7404,
        103238,
        27288,
        257970,
        122911,
        91722,
        39173,
        249631,
        48719,
        -103790,
        81516,
        13471,
        -74011,
        23878,
        4504,
        75340,
        13764,
        -2659,
        16935,
        -10923,
        3059,
        -27298,
        33225,
        106762,
        51853,
        48144,
        69855,
        111697,
        167273,
        228344,
        71500,
        166606,
        56876,
        -12608,
        51632,
        34566,
        108675,
        -23688,
        124721,
        110908,
        -59947,
        -94848,
        -72021,
        -70678,
        -23947,
        -4859,
        -28777,
        -2673,
        7192,
        -7970,
        56992,
        59551,
        -2307,
        51789,
        8727,
        155021,
        -27230,
        86955,
        46389,
        25834,
        165693,
        82716,
        160283,
        301300,
        156279,
        71611,
        -15739,
        69542,
        -36541,
        -108968,
        -149888,
        -53226,
        -25170,
        -33602,
        6801,
        18742,
        21380,
        -19733,
        -91094,
        -122341,
        -46956,
        -17674,
        -4771,
        138026,
        86406,
        201201,
        90866,
        59915,
        99138,
        95189,
        59011,
        171408,
        938,
        -13552,
        114015,
        17479,
        46560,
        -48295,
        1618,
        -66177,
        7692,
        9875,
        -10464,
        -11530,
        -32107,
        -6914,
        -131144,
        -230764,
        -221890,
        16260,
        20971,
        52574,
        52399,
        220342,
        371723,
        280050,
        77869,
        191230,
        -30367,
        217265,
        -4488,
        -120881,
        -96882,
        -138674,
        -91380,
        -47408,
        -34831,
        -106895,
        -50819,
        -6252,
        -19021,
        -31263,
        -26954,
        -95720,
        -181036,
        -326352,
        -410199,
        -344119,
        -339042,
        -143909,
        -194714,
        44364,
        50389,
        119088,
        23369,
        145304,
        -20222,
        19643,
        19090,
        -117540,
        -88777,
        -179169,
        -180384,
        -102412,
        -78299,
        -110247,
        -68548,
        -34595,
        18610,
        -33418,
        -17505,
        -42976,
        -145607,
        -233945,
        -264296,
        -435564,
        -591417,
        -523852,
        -510755,
        -433273,
        -481651,
        -203942,
        -266425,
        -170446,
        -50144,
        -146514,
        -70220,
        -192037,
        -14420,
        -6778,
        -60831,
        -127158,
        -95441,
        -91314,
        9929,
        6235,
        6046,
        -18419,
        40872,
        84088,
        20315,
        -61679,
        -38047,
        -65727,
        -296742,
        -265230,
        -526296,
        -527719,
        -703716,
        -400028,
        -297860,
        -276481,
        -152917,
        25158,
        7585,
        -2254,
        48343,
        -20757,
        -68384,
        -134495,
        -80796,
        -59400,
        -5183,
        24120,
        645,
        -27619,
        10301,
        92540,
        153911,
        148023,
        62337,
        153373,
        208601,
        26473,
        -20616,
        39208,
        -17661,
        -66906,
        -62244,
        -72009,
        -93725,
        -52235,
        -13424,
        57991,
        25678,
        -79785,
        -27139,
        -67552,
        -124567,
        -78064,
        29940,
        13200,
        16779,
        8896,
        47973,
        81232,
        199468,
        7605,
        6505,
        64263,
        35893,
        66006,
        42004,
        -43205,
        -23426,
        -73034,
        -100626,
        -68482,
        -101889,
        -100918,
        -119222,
        -75551,
        -99825,
        -63418,
        -99709,
        -132182,
        -147441,
        -20279,
        2543,
        81,
        5115,
        -13519,
        15335,
        57635,
        149464,
        -148765,
        -99553,
        -10287,
        -69591,
        -10262,
        56302,
        -61117,
        -42914,
        -91709,
        -125979,
        -91040,
        -84199,
        -183473,
        -31386,
        -52193,
        -160362,
        -172640,
        -148310,
        -140708,
        -104559,
        -17681,
        32886,
        -11187,
        -30641,
        -13490,
        28545,
        82753,
        117149,
        -104745,
        -93929,
        -30514,
        94180,
        -8656,
        35296,
        144189,
        8732,
        143709,
        74898,
        -52658,
        -64213,
        -125521,
        -172390,
        -213389,
        -127065,
        -146922,
        -111425,
        -12066,
        -92383,
        -22453,
        29427,
        230,
        -22273,
        1142,
        14679,
        65169,
        90472,
        28552,
        43720,
        43693,
        12535,
        -90256,
        -25603,
        43583,
        -32180,
        58954,
        -208760,
        -48458,
        23493,
        -71812,
        -73490,
        -27584,
        74814,
        -18301,
        -63105,
        524,
        -44815,
        -35244,
        27894,
        16628,
        31103,
        274,
        -17821,
        32115,
        34874,
        100542,
        140102,
        228306,
        100779,
        94334,
        158268,
        64607,
        29270,
        52961,
        33779,
        64143,
        163671,
        150661,
        129538,
        94889,
        113555,
        49674,
        39124,
        23599,
        7197,
        -8392,
        -6027,
        -18981,
        23878,
        32573,
        13254,
        1015,
        -8130,
        -14899,
        16404,
        -2146,
        -25079,
        -29270,
        -32245,
        -8146,
        -28898,
        40175,
        18613,
        45918,
        56888,
        67792,
        53377,
        9314,
        31344,
        4899,
        -13032,
        -495,
        7306,
        -34691,
        -24859,
        27902,
        16149,
        -955,
        1128,
        4930,
        8330,
        -24528,
        -9795,
        -35955,
        -36628,
        -15989,
        -19026,
        19914,
        11825,
        -10231,
        4159,
        38934,
        -1215,
        364,
        -9960,
        -41249,
        -6854,
        -33310,
        -19397,
        -22583,
        26604,
        -32899,
        34412,
        13391,
        -24135,
        29589,
        -7870,
        -30249,
        -4960,
        17650,
        -34725,
        -2676,
        14532,
        -13919,
        3253,
        -13997,
        -23961,
        27969,
        -25359,
        -419,
        11895,
        -19959,
        17244,
        -29659,
        34109,
        15906,
        -5056,
        -29709,
        1101,
        12668,
        -19397,
        -4498,
        -35592,
        -35704,
        -3879,
        29884,
        -1681,
        11199,
        -14239,
        -11616,
        -3912,
        -18111,
        21714,
        22055,
        -27961,
        10845,
        6846,
        5264,
        -2568,
        -12216,
        -20501,
        5275,
        20333,
        -5579,
        -2503,
        2688,
        -15349,
        18908,
        32953,
        -3264,
        2428,
        28776,
        29252,
        -26568,
        -16539,
        -35027,
        21930,
        27948,
        -13401,
        8364,
        5964,
        -36252,
        -4277,
        23236,
        81699,
        102989,
        105588,
        31666,
        15904,
        -6385,
        11990,
        -10288,
        20140,
        -14353,
        -29434,
        16756,
        13246,
        7861,
        15195,
        4250,
        14661,
        15150,
        -19266,
        -4118,
        1286,
        -9714,
        -42351,
        -34980,
        -46248,
        -100095,
        -109090,
        -116440,
        -33422,
        4921,
        16026,
        -42413,
        -114389,
        -53764,
        9788,
        -76928,
        -36391,
        -22385,
        22566,
        -28600,
        10870,
        17163,
        -5427,
        18472,
        25572,
        -16090,
        -7106,
        21395,
        6943,
        -31830,
        -35348,
        -82966,
        -79939,
        -117333,
        -84977,
        -10118,
        -40108,
        -101601,
        -6690,
        -37072,
        -94863,
        58964,
        -45598,
        -64234,
        76495,
        49779,
        -104367,
        -86308,
        -17197,
        33066,
        -20270,
        3054,
        30463,
        -6002,
        -9317,
        -33976,
        -23589,
        -870,
        -133949,
        -167988,
        -205105,
        -115036,
        -74737,
        -64519,
        -26268,
        76141,
        -50416,
        -252035,
        -37272,
        -103282,
        -41591,
        65266,
        54698,
        53698,
        41550,
        -52279,
        1576,
        19604,
        24419,
        21326,
        20000,
        27947,
        17456,
        -77039,
        -131422,
        -149089,
        -263046,
        -318865,
        -159163,
        9313,
        -118659,
        -219000,
        -78521,
        -169478,
        -33665,
        -114820,
        35108,
        -102189,
        -49761,
        13568,
        -13688,
        45489,
        -91944,
        -107465,
        -13117,
        -16055,
        15756,
        -14749,
        12227,
        1915,
        -40245,
        -78935,
        -142893,
        -158610,
        -279533,
        -255357,
        -80690,
        -41608,
        6050,
        -87597,
        2403,
        -184937,
        -44419,
        -2690,
        -37794,
        17573,
        64909,
        -39286,
        35718,
        -9672,
        -100018,
        -113152,
        12446,
        -34944,
        12165,
        27971,
        15037,
        -34615,
        -19305,
        -35610,
        -55003,
        -147106,
        -238030,
        -246677,
        -3356,
        4453,
        -65763,
        -50615,
        -33372,
        -6228,
        -173598,
        -18217,
        -53270,
        23313,
        -30125,
        -18478,
        -61563,
        -135897,
        -139331,
        -39389,
        -17154,
        -19586,
        -25388,
        -20955,
        34159,
        -18268,
        -34616,
        -41930,
        -121950,
        -183089,
        -210731,
        -239432,
        6017,
        -190,
        583,
        27693,
        -95809,
        48094,
        95997,
        -121785,
        -86427,
        -153838,
        -85777,
        -29779,
        -138746,
        -132913,
        -55421,
        -10767,
        -34355,
        1772,
        35335,
        -34819,
        8311,
        -23761,
        -41890,
        -94004,
        -79311,
        -131573,
        -145748,
        -157880,
        -23021,
        56039,
        30265,
        -16285,
        112759,
        231760,
        135614,
        8622,
        -52925,
        -141608,
        -171852,
        -102247,
        -159742,
        -149346,
        -80999,
        12938,
        2134,
        29755,
        -349,
        -12314,
        28533,
        -19580,
        -66257,
        -35421,
        -55867,
        -93910,
        -125230,
        -112420,
        -33374,
        480,
        -138162,
        69662,
        239522,
        179294,
        65162,
        17215,
        -74118,
        -117380,
        -131881,
        -126077,
        -129107,
        -86940,
        -47288,
        -46759,
        -21379,
        31741,
        -18882,
        -11921,
        25472,
        8916,
        17787,
        -47997,
        -50,
        -34109,
        -122901,
        -98259,
        -133422,
        -118675,
        37392,
        97259,
        308056,
        144200,
        75748,
        62300,
        -68655,
        -104309,
        -133341,
        -50356,
        -33332,
        -28843,
        -25548,
        -45111,
        1161,
        -1880,
        8444,
        -23022,
        -16207,
        36205,
        11991,
        6055,
        -41765,
        -33700,
        -34046,
        -57851,
        -106179,
        -163417,
        63579,
        77847,
        198331,
        149889,
        94332,
        158219,
        -144265,
        -248233,
        -111086,
        -89938,
        -78217,
        -83094,
        -48606,
        -25601,
        -21590,
        28402,
        -1765,
        -13131,
        8110,
        41398,
        -5231,
        -53704,
        -11719,
        -34272,
        -64663,
        -26649,
        -150928,
        -120678,
        6325,
        83,
        260924,
        162630,
        315114,
        -39627,
        -183939,
        -212164,
        -145706,
        -102221,
        -50196,
        -45958,
        -39350,
        -44565,
        18714,
        32606,
        -10783,
        -31916,
        17472,
        -23281,
        -24179,
        -42101,
        -65483,
        -84416,
        -47225,
        -104461,
        -119449,
        -87670,
        52733,
        147135,
        290068,
        15174,
        178433,
        -188885,
        -189806,
        -144069,
        -105468,
        -96731,
        -18951,
        -61181,
        16480,
        3432,
        -760,
        -33427,
        32477,
        22843,
        37254,
        13259,
        8941,
        -80017,
        -149398,
        -136450,
        -115316,
        45647,
        16723,
        68226,
        13630,
        101732,
        199857,
        -74445,
        49287,
        -300727,
        -205529,
        -128892,
        -63204,
        -40877,
        -76396,
        -92137,
        -39887,
        -46752,
        -25539,
        19703,
        -4798,
        17015,
        27245,
        1895,
        14547,
        -109523,
        -163667,
        -157331,
        -73665,
        -75205,
        1031,
        20870,
        24630,
        171083,
        155541,
        -61699,
        -251402,
        -220169,
        -197986,
        -64661,
        -63368,
        -24737,
        -52710,
        -48574,
        -19566,
        -3659,
        58265,
        -3608,
        8869,
        -5865,
        -1139,
        -13375,
        -29250,
        -95641,
        -261851,
        -196256,
        -103052,
        -72594,
        -91414,
        -76713,
        -164161,
        112734,
        103030,
        -183585,
        -280024,
        9877,
        39428,
        -16713,
        -61127,
        -108097,
        -92391,
        -57857,
        -14644,
        -32796,
        26055,
        34228,
        -19691,
        27483,
        18031,
        -16073,
        -11601,
        -168097,
        -128649,
        20735,
        -75176,
        -86793,
        -68886,
        -44322,
        -171101,
        69718,
        -96475,
        -21808,
        2347,
        -9403,
        65860,
        -21012,
        -84014,
        -154441,
        -145612,
        -57405,
        -19073,
        -27942,
        57416,
        27280,
        -10729,
        5163,
        -883,
        -17879,
        -53840,
        -81834,
        45704,
        36381,
        -21316,
        5938,
        41876,
        19672,
        -26488,
        -136514,
        77483,
        90012,
        157050,
        101733,
        38625,
        -105714,
        -99281,
        -147819,
        -97616,
        -65489,
        -15192,
        -7775,
        50538,
        -2234,
        667,
        26067,
        24063,
        20562,
        -63921,
        63246,
        144335,
        81095,
        -52873,
        7187,
        122244,
        10702,
        -103619,
        -89414,
        -66445,
        3385,
        -57529,
        49203,
        104501,
        -102184,
        -176593,
        -137331,
        -114304,
        -75843,
        -29160,
        34301,
        30890,
        20363,
        -26821,
        20385,
        7863,
        -6636,
        -18207,
        207238,
        129710,
        -15489,
        -71446,
        -24663,
        -157526,
        -139456,
        -130291,
        -178030,
        -63717,
        -82824,
        57012,
        140998,
        164843,
        2553,
        -201566,
        -149969,
        -77889,
        -35515,
        5366,
        1980,
        -10542,
        -124,
        -34619,
        -25158,
        4727,
        -1838,
        -36066,
        211589,
        154956,
        19453,
        12971,
        91164,
        -83941,
        -46461,
        90519,
        19815,
        -96226,
        -53379,
        31920,
        108263,
        100210,
        -99627,
        -173608,
        -111888,
        -48370,
        5623,
        -30778,
        -243,
        31570,
        18764,
        29680,
        28040,
        -8763,
        -49219,
        -40893,
        58667,
        20395,
        -52398,
        -96867,
        -18033,
        -75296,
        -174412,
        -175427,
        -159766,
        -89496,
        -84249,
        -145669,
        -53846,
        78478,
        -6213,
        6784,
        3244,
        -1766,
        -20034,
        -2818,
        -28155,
        -16423,
        27484,
        -33498,
        5877,
        5690,
        -34203,
        4198,
        -10552,
        -23519,
        -45401,
        29172,
        -26368,
        -135819,
        -70380,
        -99358,
        -172564,
        -128068,
        -110661,
        -139020,
        -108158,
        -15131,
        9749,
        -28523,
        2321,
        16608,
        3697,
        -3380,
        22961,
        15535,
        -31750,
        21018,
        -28169,
        20062,
        30073,
        2595,
        -15953,
        -26045,
        -25144,
        -13074,
        -36136,
        -11829,
        -56867,
        -34650,
        -108864,
        -47876,
        -19317,
        -37182,
        -248,
        11280,
        -31113,
        -21130,
        12755,
        33603,
        -10679,
        -325,
        -34476,
        -34280,
        31060,
        30307,
        -10885,
        -14122,
        -2312,
        16548,
        -34731,
        -20012,
        -11881,
        -15846,
        -9047,
        15695,
        -3154,
        -36065,
        33212,
        28596,
        10811,
        17054,
        13186,
        29265,
        -34142,
        -22168,
        -4535,
        -6794,
        -23719,
        -34250,
        -27276,
        -5547,
        30317,
        23678,
        10294,
        -21935,
        -14368,
        3441,
        -33104,
        -1630,
        7263,
        32289,
        -9375,
        35056,
        2694,
        -24778,
        33754,
        30963,
        -28220,
        -20718,
        17077,
        -21975,
        24284,
        -17040,
        -11084,
        -10252,
        34073,
        -12077,
        -6944,
        21610,
        -24436,
        -172,
        -27587,
        -32964,
        -8154,
        3948,
        34047,
        -11947,
        4655,
        29869,
        19669,
        9624,
        -39859,
        -29500,
        -15241,
        -43129,
        15231,
        -20529,
        30965,
        13209,
        -12115,
        -3200,
        23393,
        26264,
        21663,
        -20790,
        10263,
        26801,
        6299,
        23645,
        -22149,
        25102,
        -1185,
        -32042,
        -4255,
        52567,
        -14049,
        -28199,
        -23024,
        -14510,
        -27469,
        -48998,
        -41013,
        -51406,
        -48941,
        -40094,
        -60082,
        -54329,
        -135985,
        -77670,
        -54381,
        -30108,
        -10081,
        30148,
        32594,
        17438,
        17738,
        -17317,
        14599,
        -24079,
        15443,
        -25157,
        1237,
        35600,
        23921,
        162,
        9626,
        -688,
        -29238,
        -15277,
        26102,
        -154222,
        -160190,
        -102250,
        -200203,
        -215659,
        -215315,
        -124539,
        -97976,
        -95343,
        -109269,
        -22314,
        25083,
        -32896,
        22826,
        -22253,
        -25823,
        -14273,
        -12341,
        -20820,
        -1750,
        33728,
        60915,
        112400,
        63791,
        29585,
        44408,
        145066,
        50363,
        88523,
        3896,
        -76286,
        44314,
        -76320,
        -16808,
        -71666,
        -110526,
        -120539,
        -191315,
        -101675,
        -10521,
        22521,
        18743,
        -30129,
        13344,
        24240,
        30679,
        -12507,
        -74577,
        -46033,
        69038,
        79411,
        61637,
        12526,
        362,
        68226,
        116954,
        79845,
        67349,
        106337,
        77189,
        -30020,
        69998,
        -58904,
        41216,
        -34499,
        -136553,
        -67778,
        10241,
        -22838,
        -20200,
        21221,
        28529,
        3554,
        -13565,
        -31519,
        -51099,
        -53700,
        78944,
        -76661,
        -86912,
        10588,
        -65430,
        10305,
        -24609,
        -18201,
        9550,
        -46798,
        88992,
        -106110,
        38738,
        -41222,
        85006,
        -90324,
        -56796,
        -168528,
        13844,
        -21177,
        -11100,
        6109,
        9805,
        39291,
        14550,
        58541,
        -12595,
        63242,
        109467,
        -43481,
        26507,
        41265,
        11831,
        -3046,
        93036,
        -112182,
        -142301,
        -73518,
        -53081,
        20806,
        42978,
        -31582,
        -16420,
        94581,
        -53604,
        -101067,
        -145101,
        -10477,
        -2911,
        -472,
        20845,
        22267,
        65737,
        110198,
        61302,
        36732,
        146725,
        121800,
        47207,
        37959,
        -39881,
        19442,
        75784,
        63048,
        23786,
        -49137,
        -3514,
        -50358,
        42268,
        164304,
        -77645,
        103620,
        116734,
        -38021,
        -43327,
        41995,
        -10699,
        19266,
        26865,
        32132,
        124746,
        158308,
        195400,
        74742,
        93313,
        46718,
        112447,
        11774,
        29191,
        3645,
        116773,
        141941,
        76549,
        4492,
        155523,
        -71708,
        31926,
        -37404,
        53719,
        -30864,
        111696,
        -27622,
        -98417,
        22566,
        5330,
        -4750,
        14496,
        81853,
        93023,
        136099,
        208201,
        132998,
        -58906,
        -43257,
        25761,
        112906,
        12492,
        -39588,
        -64687,
        72199,
        51337,
        77765,
        8461,
        133272,
        82086,
        5975,
        -27499,
        83982,
        87052,
        -145090,
        -160071,
        -50879,
        8240,
        5867,
        47766,
        172003,
        177298,
        261393,
        77947,
        98281,
        197511,
        -1847,
        132166,
        92901,
        162625,
        3856,
        -161415,
        42690,
        -115415,
        -51781,
        37395,
        97012,
        21382,
        103396,
        -25047,
        194158,
        312854,
        85274,
        -33457,
        -35235,
        -15042,
        -33753,
        74975,
        150772,
        178428,
        209105,
        72795,
        -178,
        196712,
        150918,
        18773,
        -73908,
        -96877,
        -270581,
        -371002,
        15683,
        8338,
        -115,
        -71537,
        4432,
        66916,
        148426,
        7744,
        147370,
        155584,
        173069,
        7197,
        1884,
        -671,
        3588,
        56642,
        58360,
        102880,
        87871,
        -25105,
        -2969,
        220996,
        172247,
        107742,
        -90360,
        -325653,
        -402179,
        -59984,
        3411,
        -60354,
        -139984,
        -73029,
        -54554,
        -225271,
        94633,
        -65684,
        -146362,
        -17516,
        56612,
        -31855,
        -3622,
        21123,
        -3665,
        2625,
        26498,
        -1344,
        -80893,
        -125622,
        -179892,
        -187757,
        -389961,
        -688397,
        -652595,
        -386270,
        -262200,
        11137,
        126515,
        12625,
        -31688,
        49609,
        -35166,
        -27242,
        -190620,
        -98509,
        -53161,
        -130775,
        2255,
        29363,
        -2903,
        -4788,
        16634,
        -25476,
        -18993,
        -98238,
        -284994,
        -371397,
        -616069,
        -956274,
        -1151398,
        -778879,
        -369734,
        40167,
        161520,
        166674,
        51391,
        43399,
        -121141,
        -41711,
        31542,
        -70885,
        -69164,
        -113976,
        -163753,
        -174531,
        -76633,
        2351,
        32783,
        1483,
        839,
        27944,
        -6864,
        -62685,
        -331543,
        -544379,
        -632967,
        -681902,
        -400595,
        77118,
        147835,
        228551,
        176778,
        86564,
        66440,
        146243,
        28315,
        42191,
        31915,
        -61601,
        -71845,
        -54009,
        -118774,
        -135776,
        -81123,
        19997,
        21949,
        21677,
        -11855,
        -22619,
        -15118,
        -28537,
        -193285,
        -402677,
        -341251,
        -23358,
        161234,
        252609,
        177832,
        55844,
        104710,
        180818,
        153331,
        26553,
        35290,
        -53788,
        22285,
        -97937,
        -29468,
        -100698,
        -131758,
        -32562,
        -9955,
        80080,
        -1746,
        -14624,
        22215,
        18957,
        26176,
        -64041,
        -105969,
        -253349,
        -61709,
        165868,
        91312,
        98972,
        37358,
        16965,
        102329,
        164560,
        23191,
        67399,
        21852,
        -37144,
        -57029,
        -1081,
        -33382,
        -81843,
        -36038,
        3861,
        16728,
        70629,
        17989,
        29087,
        -9904,
        -26639,
        -8728,
        -98121,
        3346,
        -150320,
        -98740,
        49868,
        -50702,
        182430,
        251007,
        117665,
        55794,
        65591,
        84884,
        -9741,
        130365,
        5494,
        -15842,
        40822,
        -25935,
        -42520,
        49985,
        37183,
        100044,
        151071,
        10384,
        31060,
        31798,
        10461,
        -31609,
        -34320,
        -27881,
        -53985,
        50535,
        119663,
        124278,
        46386,
        69710,
        61014,
        81197,
        55526,
        36702,
        30203,
        -29319,
        -48264,
        78306,
        -31128,
        -76892,
        68536,
        31726,
        168545,
        163624,
        60665,
        5456,
        8335,
        -9619,
        15387,
        -19258,
        36947,
        -89737,
        35920,
        102276,
        19257,
        -102472,
        -19057,
        -37490,
        -107136,
        55810,
        31325,
        -52438,
        32006,
        -97154,
        164953,
        115058,
        82121,
        21577,
        88897,
        21145,
        213878,
        111856,
        82225,
        787,
        34452,
        21021,
        -2912,
        6181,
        800,
        -61557,
        105193,
        83460,
        63825,
        41872,
        -80620,
        76155,
        11201,
        -30497,
        -60142,
        131871,
        -6606,
        -77272,
        -156297,
        -14332,
        -8891,
        124677,
        91925,
        136172,
        102241,
        63028,
        35468,
        -20616,
        -21713,
        16090,
        -21452,
        -16697,
        -91554,
        -111731,
        -109723,
        -35325,
        -9533,
        -38842,
        142096,
        52237,
        6080,
        116484,
        106800,
        58647,
        141280,
        172116,
        12631,
        15670,
        10916,
        38743,
        87548,
        65034,
        -3749,
        25477,
        -25451,
        5675,
        32182,
        6493,
        6300,
        -24483,
        -69027,
        -62474,
        -126279,
        -52975,
        -255874,
        -155486,
        -52866,
        -95701,
        69405,
        4775,
        43007,
        2808,
        52167,
        -1487,
        44935,
        59118,
        78026,
        -22959,
        -56496,
        -80726,
        -9123,
        -23176,
        -22191,
        -5052,
        -20345,
        -9992,
        -15535,
        -10831,
        -22370,
        -22048,
        -31589,
        3840,
        43237,
        -88508,
        -40772,
        -71284,
        -64472,
        -17709,
        27751,
        5261,
        -11197,
        34465,
        23645,
        -84063,
        -119288,
        -78603,
        -136971,
        -90859,
        -8083,
        -37262,
        -22121,
        -8327,
        -33476,
        -32152,
        -10730,
        -6732,
        26198,
        -149,
        32397,
        54875,
        110751,
        167679,
        220431,
        151140,
        18220,
        65569,
        118853,
        152522,
        153898,
        51583,
        120474,
        54291,
        32325,
        -22667,
        -27048,
        -47243,
        -32728,
        27784,
        -24129,
        34284,
        15863,
        13784,
        -4423,
        6718,
        9159,
        -16778,
        29337,
        26089,
        19135,
        49081,
        41540,
        38953,
        22475,
        30907,
        43187,
        86628,
        79976,
        93035,
        43125,
        30360,
        66852,
        571,
        -950,
        -11129,
        31834,
        13525,
        8847,
        -861,
        900,
        14411,
        -33595,
        -34573,
        24082,
        -34960,
        18768,
        25851,
        23684,
        10893,
        3968,
        16494,
        21282,
        1125,
        -25698,
        22220,
        3979,
        21514,
        -23934,
        -8928,
        -22943,
        2046,
        30350,
        6788,
        30358,
        26241,
        -24565,
        34283,
        1984,
        29903,
        6916,
        -6098,
        30319,
        -26426,
        793,
        -5169,
        1325,
        -10601,
        28076,
        -2029,
        13941,
        14291,
        31461,
        11670,
        -35492,
        -28616,
        -34040,
        -35276,
        -30233,
        -905,
        33511,
        -23246,
        15025,
        -16295,
        27667,
        23228,
        16594,
        31463,
        -26937,
        -30326,
        -18246,
        7238,
        31543,
        23143,
        10139,
        -7530,
        -22105,
        20055,
        -86148,
        -70901,
        -28646,
        -39412,
        -40172,
        -31327,
        -49551,
        -48755,
        -55527,
        -2310,
        16033,
        -18440,
        22133,
        -8610,
        -25907,
        6132,
        -6826,
        29700,
        2475,
        -7834,
        -27887,
        26304,
        17876,
        -3076,
        -33806,
        -58382,
        -61302,
        -102601,
        -181664,
        -168090,
        -138510,
        -86269,
        -85176,
        -87747,
        -194161,
        -202985,
        -160177,
        -113147,
        -141181,
        -157443,
        -80992,
        -52558,
        8698,
        4975,
        20523,
        -19300,
        -23060,
        16605,
        -616,
        -29060,
        -25437,
        -101164,
        -158876,
        -147769,
        -139525,
        -137697,
        -113028,
        -98904,
        -67842,
        -248138,
        -55234,
        -14107,
        -18636,
        4581,
        -47983,
        -68518,
        31401,
        -11645,
        -30658,
        58722,
        -15369,
        4942,
        -29497,
        17108,
        7123,
        -21917,
        -32842,
