{
    "l1_weights": [
        -201799,
        253330,
        -94632,
        -1679517,
        -194549,
        139218,
        -158168,
        497705,
        -566381,
        1437657,
        -1098219,
        -252057,
        -643523,
        -291986,
        -291486,
        26194,
        1668978,
        576082,
        -1310992,
        -1006468
    ],
    "l1_biases": [
        332004696131,
        -615841984749,
        -247557893395,
        528358042240,
        -533230543137,
        -386732697487,
        680972695351,
        -655961990356,
        -657531619072,
        -634221017361
    ],
    "l2_weights": [
        -167334,
        1135549,
        -176126,
        -262836,
        915547,
        590526,
        -63137,
        271829,
        1246469,
        1245495,
        60699,
        -1024452,
        24655,
        -177994,
        -1364973,
        -1049718,
        78062,
        185411,
        -1245607,
        -1103638
    ],
    "l2_biases": [
        -94743110239505760,
        611362576484680192
    ]
}